Test Accuracy: 0.9230505687268741
Test Error:    0.07694943127312594
Duration:      12356ms
Learned classification tree model:
DecisionTreeModel classifier of depth 3 with 13 nodes
  If (feature 4 <= 30.5)
   If (feature 31 <= 254.5)
    If (feature 32 <= 218.5)
     Predict: 0.0
    Else (feature 32 > 218.5)
     Predict: 1.0
   Else (feature 31 > 254.5)
    Predict: 0.0
  Else (feature 4 > 30.5)
   If (feature 39 <= 0.005)
    If (feature 1 <= 1.5)
     Predict: 1.0
    Else (feature 1 > 1.5)
     Predict: 0.0
   Else (feature 39 > 0.005)
    If (feature 36 <= 0.005)
     Predict: 0.0
    Else (feature 36 > 0.005)
     Predict: 1.0


Test Accuracy: 0.9230661336699628
Test Error:    0.07693386633003717
Duration:      14140ms
Learned classification tree model:
DecisionTreeModel classifier of depth 3 with 13 nodes
  If (feature 4 <= 30.5)
   If (feature 31 <= 254.5)
    If (feature 39 <= 0.995)
     Predict: 0.0
    Else (feature 39 > 0.995)
     Predict: 1.0
   Else (feature 31 > 254.5)
    Predict: 0.0
  Else (feature 4 > 30.5)
   If (feature 39 <= 0.005)
    If (feature 1 <= 1.5)
     Predict: 1.0
    Else (feature 1 > 1.5)
     Predict: 0.0
   Else (feature 39 > 0.005)
    If (feature 36 <= 0.005)
     Predict: 0.0
    Else (feature 36 > 0.005)
     Predict: 1.0


Test Accuracy: 0.9326104858632995
Test Error:    0.06738951413670052
Duration:      12287ms
Learned classification tree model:
DecisionTreeModel classifier of depth 3 with 13 nodes
  If (feature 4 <= 32.5)
   If (feature 31 <= 254.5)
    If (feature 39 <= 0.995)
     Predict: 0.0
    Else (feature 39 > 0.995)
     Predict: 1.0
   Else (feature 31 > 254.5)
    Predict: 0.0
  Else (feature 4 > 32.5)
   If (feature 5 <= 2.5)
    If (feature 33 <= 0.745)
     Predict: 1.0
    Else (feature 33 > 0.745)
     Predict: 0.0
   Else (feature 5 > 2.5)
    If (feature 9 <= 0.5)
     Predict: 1.0
    Else (feature 9 > 0.5)
     Predict: 0.0


Test Accuracy: 0.9246870653685675
Test Error:    0.07531293463143254
Duration:      12293ms
Learned classification tree model:
DecisionTreeModel classifier of depth 3 with 13 nodes
  If (feature 4 <= 31.5)
   If (feature 31 <= 254.5)
    If (feature 39 <= 0.995)
     Predict: 0.0
    Else (feature 39 > 0.995)
     Predict: 1.0
   Else (feature 31 > 254.5)
    Predict: 0.0
  Else (feature 4 > 31.5)
   If (feature 39 <= 0.005)
    If (feature 1 <= 1.5)
     Predict: 1.0
    Else (feature 1 > 1.5)
     Predict: 0.0
   Else (feature 39 > 0.005)
    If (feature 36 <= 0.005)
     Predict: 0.0
    Else (feature 36 > 0.005)
     Predict: 1.0


Test Accuracy: 0.9262157629960872
Test Error:    0.0737842370039128
Duration:      12517ms
Learned classification tree model:
DecisionTreeModel classifier of depth 3 with 13 nodes
  If (feature 4 <= 31.5)
   If (feature 31 <= 254.5)
    If (feature 39 <= 0.995)
     Predict: 0.0
    Else (feature 39 > 0.995)
     Predict: 1.0
   Else (feature 31 > 254.5)
    Predict: 0.0
  Else (feature 4 > 31.5)
   If (feature 39 <= 0.005)
    If (feature 1 <= 1.5)
     Predict: 1.0
    Else (feature 1 > 1.5)
     Predict: 0.0
   Else (feature 39 > 0.005)
    If (feature 36 <= 0.005)
     Predict: 0.0
    Else (feature 36 > 0.005)
     Predict: 1.0


Test Accuracy: 0.9247485758492159
Test Error:    0.07525142415078416
Duration:      12513ms
Learned classification tree model:
DecisionTreeModel classifier of depth 3 with 13 nodes
  If (feature 4 <= 30.5)
   If (feature 31 <= 254.5)
    If (feature 39 <= 0.995)
     Predict: 0.0
    Else (feature 39 > 0.995)
     Predict: 1.0
   Else (feature 31 > 254.5)
    Predict: 0.0
  Else (feature 4 > 30.5)
   If (feature 39 <= 0.005)
    If (feature 1 <= 1.5)
     Predict: 1.0
    Else (feature 1 > 1.5)
     Predict: 0.0
   Else (feature 39 > 0.005)
    If (feature 36 <= 0.005)
     Predict: 0.0
    Else (feature 36 > 0.005)
     Predict: 1.0


Test Accuracy: 0.9216750139120757
Test Error:    0.07832498608792432
Duration:      12112ms
Learned classification tree model:
DecisionTreeModel classifier of depth 3 with 13 nodes
  If (feature 4 <= 31.5)
   If (feature 31 <= 254.5)
    If (feature 39 <= 0.995)
     Predict: 0.0
    Else (feature 39 > 0.995)
     Predict: 1.0
   Else (feature 31 > 254.5)
    Predict: 0.0
  Else (feature 4 > 31.5)
   If (feature 39 <= 0.005)
    If (feature 1 <= 1.5)
     Predict: 1.0
    Else (feature 1 > 1.5)
     Predict: 0.0
   Else (feature 39 > 0.005)
    If (feature 36 <= 0.005)
     Predict: 0.0
    Else (feature 36 > 0.005)
     Predict: 1.0


Test Accuracy: 0.9227662093460547
Test Error:    0.07723379065394526
Duration:      12319ms
Learned classification tree model:
DecisionTreeModel classifier of depth 3 with 13 nodes
  If (feature 4 <= 31.5)
   If (feature 35 <= 0.005)
    Predict: 0.0
   Else (feature 35 > 0.005)
    If (feature 32 <= 158.5)
     Predict: 0.0
    Else (feature 32 > 158.5)
     Predict: 1.0
  Else (feature 4 > 31.5)
   If (feature 39 <= 0.005)
    If (feature 1 <= 1.5)
     Predict: 1.0
    Else (feature 1 > 1.5)
     Predict: 0.0
   Else (feature 39 > 0.005)
    If (feature 36 <= 0.005)
     Predict: 0.0
    Else (feature 36 > 0.005)
     Predict: 1.0


Test Accuracy: 0.9228119507908612
Test Error:    0.07718804920913884
Duration:      12631ms
Learned classification tree model:
DecisionTreeModel classifier of depth 3 with 13 nodes
  If (feature 4 <= 31.5)
   If (feature 35 <= 0.005)
    Predict: 0.0
   Else (feature 35 > 0.005)
    If (feature 32 <= 221.5)
     Predict: 0.0
    Else (feature 32 > 221.5)
     Predict: 1.0
  Else (feature 4 > 31.5)
   If (feature 39 <= 0.005)
    If (feature 1 <= 1.5)
     Predict: 1.0
    Else (feature 1 > 1.5)
     Predict: 0.0
   Else (feature 39 > 0.005)
    If (feature 36 <= 0.005)
     Predict: 0.0
    Else (feature 36 > 0.005)
     Predict: 1.0


Test Accuracy: 0.9244759128141052
Test Error:    0.07552408718589476
Duration:      12466ms
Learned classification tree model:
DecisionTreeModel classifier of depth 3 with 13 nodes
  If (feature 4 <= 31.5)
   If (feature 31 <= 254.5)
    If (feature 32 <= 218.5)
     Predict: 0.0
    Else (feature 32 > 218.5)
     Predict: 1.0
   Else (feature 31 > 254.5)
    Predict: 0.0
  Else (feature 4 > 31.5)
   If (feature 39 <= 0.005)
    If (feature 1 <= 1.5)
     Predict: 1.0
    Else (feature 1 > 1.5)
     Predict: 0.0
   Else (feature 39 > 0.005)
    If (feature 36 <= 0.005)
     Predict: 0.0
    Else (feature 36 > 0.005)
     Predict: 1.0


Test Accuracy: 0.9230505687268741
Test Error:    0.07694943127312594
Duration:      12356ms
Learned classification tree model:
DecisionTreeModel classifier of depth 3 with 13 nodes
  If (feature 4 <= 30.5)
   If (feature 31 <= 254.5)
    If (feature 32 <= 218.5)
     Predict: 0.0
    Else (feature 32 > 218.5)
     Predict: 1.0
   Else (feature 31 > 254.5)
    Predict: 0.0
  Else (feature 4 > 30.5)
   If (feature 39 <= 0.005)
    If (feature 1 <= 1.5)
     Predict: 1.0
    Else (feature 1 > 1.5)
     Predict: 0.0
   Else (feature 39 > 0.005)
    If (feature 36 <= 0.005)
     Predict: 0.0
    Else (feature 36 > 0.005)
     Predict: 1.0


Test Accuracy: 0.9230661336699628
Test Error:    0.07693386633003717
Duration:      14140ms
Learned classification tree model:
DecisionTreeModel classifier of depth 3 with 13 nodes
  If (feature 4 <= 30.5)
   If (feature 31 <= 254.5)
    If (feature 39 <= 0.995)
     Predict: 0.0
    Else (feature 39 > 0.995)
     Predict: 1.0
   Else (feature 31 > 254.5)
    Predict: 0.0
  Else (feature 4 > 30.5)
   If (feature 39 <= 0.005)
    If (feature 1 <= 1.5)
     Predict: 1.0
    Else (feature 1 > 1.5)
     Predict: 0.0
   Else (feature 39 > 0.005)
    If (feature 36 <= 0.005)
     Predict: 0.0
    Else (feature 36 > 0.005)
     Predict: 1.0


Test Accuracy: 0.9326104858632995
Test Error:    0.06738951413670052
Duration:      12287ms
Learned classification tree model:
DecisionTreeModel classifier of depth 3 with 13 nodes
  If (feature 4 <= 32.5)
   If (feature 31 <= 254.5)
    If (feature 39 <= 0.995)
     Predict: 0.0
    Else (feature 39 > 0.995)
     Predict: 1.0
   Else (feature 31 > 254.5)
    Predict: 0.0
  Else (feature 4 > 32.5)
   If (feature 5 <= 2.5)
    If (feature 33 <= 0.745)
     Predict: 1.0
    Else (feature 33 > 0.745)
     Predict: 0.0
   Else (feature 5 > 2.5)
    If (feature 9 <= 0.5)
     Predict: 1.0
    Else (feature 9 > 0.5)
     Predict: 0.0


Test Accuracy: 0.9246870653685675
Test Error:    0.07531293463143254
Duration:      12293ms
Learned classification tree model:
DecisionTreeModel classifier of depth 3 with 13 nodes
  If (feature 4 <= 31.5)
   If (feature 31 <= 254.5)
    If (feature 39 <= 0.995)
     Predict: 0.0
    Else (feature 39 > 0.995)
     Predict: 1.0
   Else (feature 31 > 254.5)
    Predict: 0.0
  Else (feature 4 > 31.5)
   If (feature 39 <= 0.005)
    If (feature 1 <= 1.5)
     Predict: 1.0
    Else (feature 1 > 1.5)
     Predict: 0.0
   Else (feature 39 > 0.005)
    If (feature 36 <= 0.005)
     Predict: 0.0
    Else (feature 36 > 0.005)
     Predict: 1.0


Test Accuracy: 0.9262157629960872
Test Error:    0.0737842370039128
Duration:      12517ms
Learned classification tree model:
DecisionTreeModel classifier of depth 3 with 13 nodes
  If (feature 4 <= 31.5)
   If (feature 31 <= 254.5)
    If (feature 39 <= 0.995)
     Predict: 0.0
    Else (feature 39 > 0.995)
     Predict: 1.0
   Else (feature 31 > 254.5)
    Predict: 0.0
  Else (feature 4 > 31.5)
   If (feature 39 <= 0.005)
    If (feature 1 <= 1.5)
     Predict: 1.0
    Else (feature 1 > 1.5)
     Predict: 0.0
   Else (feature 39 > 0.005)
    If (feature 36 <= 0.005)
     Predict: 0.0
    Else (feature 36 > 0.005)
     Predict: 1.0


Test Accuracy: 0.9247485758492159
Test Error:    0.07525142415078416
Duration:      12513ms
Learned classification tree model:
DecisionTreeModel classifier of depth 3 with 13 nodes
  If (feature 4 <= 30.5)
   If (feature 31 <= 254.5)
    If (feature 39 <= 0.995)
     Predict: 0.0
    Else (feature 39 > 0.995)
     Predict: 1.0
   Else (feature 31 > 254.5)
    Predict: 0.0
  Else (feature 4 > 30.5)
   If (feature 39 <= 0.005)
    If (feature 1 <= 1.5)
     Predict: 1.0
    Else (feature 1 > 1.5)
     Predict: 0.0
   Else (feature 39 > 0.005)
    If (feature 36 <= 0.005)
     Predict: 0.0
    Else (feature 36 > 0.005)
     Predict: 1.0


Test Accuracy: 0.9216750139120757
Test Error:    0.07832498608792432
Duration:      12112ms
Learned classification tree model:
DecisionTreeModel classifier of depth 3 with 13 nodes
  If (feature 4 <= 31.5)
   If (feature 31 <= 254.5)
    If (feature 39 <= 0.995)
     Predict: 0.0
    Else (feature 39 > 0.995)
     Predict: 1.0
   Else (feature 31 > 254.5)
    Predict: 0.0
  Else (feature 4 > 31.5)
   If (feature 39 <= 0.005)
    If (feature 1 <= 1.5)
     Predict: 1.0
    Else (feature 1 > 1.5)
     Predict: 0.0
   Else (feature 39 > 0.005)
    If (feature 36 <= 0.005)
     Predict: 0.0
    Else (feature 36 > 0.005)
     Predict: 1.0


Test Accuracy: 0.9227662093460547
Test Error:    0.07723379065394526
Duration:      12319ms
Learned classification tree model:
DecisionTreeModel classifier of depth 3 with 13 nodes
  If (feature 4 <= 31.5)
   If (feature 35 <= 0.005)
    Predict: 0.0
   Else (feature 35 > 0.005)
    If (feature 32 <= 158.5)
     Predict: 0.0
    Else (feature 32 > 158.5)
     Predict: 1.0
  Else (feature 4 > 31.5)
   If (feature 39 <= 0.005)
    If (feature 1 <= 1.5)
     Predict: 1.0
    Else (feature 1 > 1.5)
     Predict: 0.0
   Else (feature 39 > 0.005)
    If (feature 36 <= 0.005)
     Predict: 0.0
    Else (feature 36 > 0.005)
     Predict: 1.0


Test Accuracy: 0.9228119507908612
Test Error:    0.07718804920913884
Duration:      12631ms
Learned classification tree model:
DecisionTreeModel classifier of depth 3 with 13 nodes
  If (feature 4 <= 31.5)
   If (feature 35 <= 0.005)
    Predict: 0.0
   Else (feature 35 > 0.005)
    If (feature 32 <= 221.5)
     Predict: 0.0
    Else (feature 32 > 221.5)
     Predict: 1.0
  Else (feature 4 > 31.5)
   If (feature 39 <= 0.005)
    If (feature 1 <= 1.5)
     Predict: 1.0
    Else (feature 1 > 1.5)
     Predict: 0.0
   Else (feature 39 > 0.005)
    If (feature 36 <= 0.005)
     Predict: 0.0
    Else (feature 36 > 0.005)
     Predict: 1.0


Test Accuracy: 0.9244759128141052
Test Error:    0.07552408718589476
Duration:      12466ms
Learned classification tree model:
DecisionTreeModel classifier of depth 3 with 13 nodes
  If (feature 4 <= 31.5)
   If (feature 31 <= 254.5)
    If (feature 32 <= 218.5)
     Predict: 0.0
    Else (feature 32 > 218.5)
     Predict: 1.0
   Else (feature 31 > 254.5)
    Predict: 0.0
  Else (feature 4 > 31.5)
   If (feature 39 <= 0.005)
    If (feature 1 <= 1.5)
     Predict: 1.0
    Else (feature 1 > 1.5)
     Predict: 0.0
   Else (feature 39 > 0.005)
    If (feature 36 <= 0.005)
     Predict: 0.0
    Else (feature 36 > 0.005)
     Predict: 1.0


